<?xml version="1.0"?>
<opencv_storage>
<cascade>
  <stageType>BOOST</stageType>
  <featureType>HAAR</featureType>
  <height>40</height>
  <width>52</width>
  <stageParams>
    <boostType>GAB</boostType>
    <minHitRate>9.9900001287460327e-01</minHitRate>
    <maxFalseAlarm>5.0000000000000000e-01</maxFalseAlarm>
    <weightTrimRate>9.4999999999999996e-01</weightTrimRate>
    <maxDepth>1</maxDepth>
    <maxWeakCount>100</maxWeakCount></stageParams>
  <featureParams>
    <maxCatCount>0</maxCatCount>
    <featSize>1</featSize>
    <mode>ALL</mode></featureParams>
  <stageNum>6</stageNum>
  <stages>
    <!-- stage 0 -->
    <_>
      <maxWeakCount>2</maxWeakCount>
      <stageThreshold>-4.3714764714241028e-01</stageThreshold>
      <weakClassifiers>
        <_>
          <internalNodes>
            0 -1 9 -2.1805249154567719e-02</internalNodes>
          <leafValues>
            6.7441862821578979e-01 -9.7762238979339600e-01</leafValues></_>
        <_>
          <internalNodes>
            0 -1 6 5.3689237684011459e-02</internalNodes>
          <leafValues>
            -9.9620610475540161e-01 5.4047471284866333e-01</leafValues></_></weakClassifiers></_>
    <!-- stage 1 -->
    <_>
      <maxWeakCount>2</maxWeakCount>
      <stageThreshold>-3.5297727584838867e-01</stageThreshold>
      <weakClassifiers>
        <_>
          <internalNodes>
            0 -1 5 6.9178074598312378e-02</internalNodes>
          <leafValues>
            -9.7202795743942261e-01 5.8139532804489136e-01</leafValues></_>
        <_>
          <internalNodes>
            0 -1 2 7.7372401952743530e-02</internalNodes>
          <leafValues>
            -9.3437260389328003e-01 8.6273819208145142e-01</leafValues></_></weakClassifiers></_>
    <!-- stage 2 -->
    <_>
      <maxWeakCount>2</maxWeakCount>
      <stageThreshold>-2.7593213319778442e-01</stageThreshold>
      <weakClassifiers>
        <_>
          <internalNodes>
            0 -1 10 3.9198428392410278e-02</internalNodes>
          <leafValues>
            -9.5323246717453003e-01 7.4193549156188965e-01</leafValues></_>
        <_>
          <internalNodes>
            0 -1 14 -4.1256841272115707e-02</internalNodes>
          <leafValues>
            6.7730033397674561e-01 -9.7918659448623657e-01</leafValues></_></weakClassifiers></_>
    <!-- stage 3 -->
    <_>
      <maxWeakCount>3</maxWeakCount>
      <stageThreshold>-1.4875128269195557e+00</stageThreshold>
      <weakClassifiers>
        <_>
          <internalNodes>
            0 -1 8 8.0469004809856415e-02</internalNodes>
          <leafValues>
            -9.9397587776184082e-01 -1.0638298094272614e-01</leafValues></_>
        <_>
          <internalNodes>
            0 -1 3 2.1299459040164948e-02</internalNodes>
          <leafValues>
            -8.9125680923461914e-01 4.8107495903968811e-01</leafValues></_>
        <_>
          <internalNodes>
            0 -1 11 7.9167872667312622e-02</internalNodes>
          <leafValues>
            -1. 3.9771988987922668e-01</leafValues></_></weakClassifiers></_>
    <!-- stage 4 -->
    <_>
      <maxWeakCount>3</maxWeakCount>
      <stageThreshold>-1.6656306982040405e+00</stageThreshold>
      <weakClassifiers>
        <_>
          <internalNodes>
            0 -1 1 -2.5190750136971474e-02</internalNodes>
          <leafValues>
            3.8095238804817200e-01 -9.5810055732727051e-01</leafValues></_>
        <_>
          <internalNodes>
            0 -1 7 2.1833784878253937e-02</internalNodes>
          <leafValues>
            -9.4112890958786011e-01 2.5866451859474182e-01</leafValues></_>
        <_>
          <internalNodes>
            0 -1 12 5.9167781728319824e-05</internalNodes>
          <leafValues>
            -9.6619468927383423e-01 4.3681812286376953e-01</leafValues></_></weakClassifiers></_>
    <!-- stage 5 -->
    <_>
      <maxWeakCount>3</maxWeakCount>
      <stageThreshold>-1.3559879064559937e+00</stageThreshold>
      <weakClassifiers>
        <_>
          <internalNodes>
            0 -1 4 3.7321999669075012e-02</internalNodes>
          <leafValues>
            -9.6332865953445435e-01 2.6530611515045166e-01</leafValues></_>
        <_>
          <internalNodes>
            0 -1 13 -5.3115420043468475e-02</internalNodes>
          <leafValues>
            5.8986407518386841e-01 -8.4703272581100464e-01</leafValues></_>
        <_>
          <internalNodes>
            0 -1 0 1.3903133571147919e-02</internalNodes>
          <leafValues>
            -7.7426123619079590e-01 7.1511322259902954e-01</leafValues></_></weakClassifiers></_></stages>
  <features>
    <_>
      <rects>
        <_>
          0 0 6 33 -1.</_>
        <_>
          3 0 3 33 2.</_></rects>
      <tilted>0</tilted></_>
    <_>
      <rects>
        <_>
          2 22 20 7 -1.</_>
        <_>
          7 22 10 7 2.</_></rects>
      <tilted>0</tilted></_>
    <_>
      <rects>
        <_>
          6 0 8 40 -1.</_>
        <_>
          6 10 8 20 2.</_></rects>
      <tilted>0</tilted></_>
    <_>
      <rects>
        <_>
          6 8 9 6 -1.</_>
        <_>
          9 11 3 6 3.</_></rects>
      <tilted>1</tilted></_>
    <_>
      <rects>
        <_>
          8 4 12 8 -1.</_>
        <_>
          11 7 6 8 2.</_></rects>
      <tilted>1</tilted></_>
    <_>
      <rects>
        <_>
          14 13 17 10 -1.</_>
        <_>
          14 13 17 5 2.</_></rects>
      <tilted>1</tilted></_>
    <_>
      <rects>
        <_>
          17 12 34 14 -1.</_>
        <_>
          17 12 17 7 2.</_>
        <_>
          34 19 17 7 2.</_></rects>
      <tilted>0</tilted></_>
    <_>
      <rects>
        <_>
          18 20 28 8 -1.</_>
        <_>
          18 24 28 4 2.</_></rects>
      <tilted>0</tilted></_>
    <_>
      <rects>
        <_>
          21 2 30 16 -1.</_>
        <_>
          21 10 30 8 2.</_></rects>
      <tilted>0</tilted></_>
    <_>
      <rects>
        <_>
          21 15 8 12 -1.</_>
        <_>
          21 18 8 6 2.</_></rects>
      <tilted>0</tilted></_>
    <_>
      <rects>
        <_>
          23 23 11 16 -1.</_>
        <_>
          23 27 11 8 2.</_></rects>
      <tilted>0</tilted></_>
    <_>
      <rects>
        <_>
          24 0 28 20 -1.</_>
        <_>
          24 10 28 10 2.</_></rects>
      <tilted>0</tilted></_>
    <_>
      <rects>
        <_>
          25 21 3 1 -1.</_>
        <_>
          26 21 1 1 3.</_></rects>
      <tilted>0</tilted></_>
    <_>
      <rects>
        <_>
          32 25 20 9 -1.</_>
        <_>
          42 25 10 9 2.</_></rects>
      <tilted>0</tilted></_>
    <_>
      <rects>
        <_>
          42 8 10 25 -1.</_>
        <_>
          47 8 5 25 2.</_></rects>
      <tilted>0</tilted></_></features></cascade>
</opencv_storage>
